<?xml version="1.0"?>
<opencv_storage>
<cascade>
  <stageType>BOOST</stageType>
  <featureType>LBP</featureType>
  <height>40</height>
  <width>40</width>
  <stageParams>
    <boostType>GAB</boostType>
    <minHitRate>9.9900001287460327e-01</minHitRate>
    <maxFalseAlarm>2.0000000298023224e-01</maxFalseAlarm>
    <weightTrimRate>9.4999999999999996e-01</weightTrimRate>
    <maxDepth>1</maxDepth>
    <maxWeakCount>100</maxWeakCount></stageParams>
  <featureParams>
    <maxCatCount>256</maxCatCount>
    <featSize>1</featSize></featureParams>
  <stageNum>10</stageNum>
  <stages>
    <!-- stage 0 -->
    <_>
      <maxWeakCount>5</maxWeakCount>
      <stageThreshold>-1.1193068027496338e+00</stageThreshold>
      <weakClassifiers>
        <_>
          <internalNodes>
            0 -1 14 -738148096 -44837607 -1056947869 -48922089
            -1652497527 -888143864 -2130591505 -71581301</internalNodes>
          <leafValues>
            -8.5995084047317505e-01 7.3708921670913696e-01</leafValues></_>
        <_>
          <internalNodes>
            0 -1 33 294859165 1933526341 117470291 -14872319 692691135
            -1103003511 471017899 -43201</internalNodes>
          <leafValues>
            -7.8348517417907715e-01 6.8617975711822510e-01</leafValues></_>
        <_>
          <internalNodes>
            0 -1 31 -750266369 -137162623 -568213166 -88682408
            -645889890 -1203764736 54050986 2023768272</internalNodes>
          <leafValues>
            -7.9464399814605713e-01 6.4479637145996094e-01</leafValues></_>
        <_>
          <internalNodes>
            0 -1 16 -132980160 -551922414 -1073741813 1429393411
            -867982591 -1073082366 1562427851 -2118245</internalNodes>
          <leafValues>
            -7.4555897712707520e-01 6.8363380432128906e-01</leafValues></_>
        <_>
          <internalNodes>
            0 -1 61 -574358752 1133629447 -988536240 -5324025 1090605860
            608538897 1080109058 -33555525</internalNodes>
          <leafValues>
            -8.5034871101379395e-01 5.9466725587844849e-01</leafValues></_></weakClassifiers></_>
    <!-- stage 1 -->
    <_>
      <maxWeakCount>6</maxWeakCount>
      <stageThreshold>-3.6430883407592773e-01</stageThreshold>
      <weakClassifiers>
        <_>
          <internalNodes>
            0 -1 2 546549671 -75693809 -1996252577 -49082065 588327147
            -1383950165 -276046849 -72394089</internalNodes>
          <leafValues>
            -7.8780490159988403e-01 6.5876775979995728e-01</leafValues></_>
        <_>
          <internalNodes>
            0 -1 46 136654613 621886331 1402024735 366321995 -1081179905
            -38092637 1121893055 -1074926927</internalNodes>
          <leafValues>
            -8.0221748352050781e-01 5.4910385608673096e-01</leafValues></_>
        <_>
          <internalNodes>
            0 -1 64 -553648381 -1013333737 -2013083286 -1677200259
            1479102979 2131463425 -662059417 -353</internalNodes>
          <leafValues>
            -7.7149713039398193e-01 6.3010621070861816e-01</leafValues></_>
        <_>
          <internalNodes>
            0 -1 32 -108602445 -653061666 1414045148 2070581360
            -2086564865 -1685534590 -53761036 -159319372</internalNodes>
          <leafValues>
            -7.5400102138519287e-01 6.2309503555297852e-01</leafValues></_>
        <_>
          <internalNodes>
            0 -1 43 441914195 467763601 822171805 -75116455 2015444923
            -1643116502 -1828635713 -1074229018</internalNodes>
          <leafValues>
            -6.8275332450866699e-01 7.3299825191497803e-01</leafValues></_>
        <_>
          <internalNodes>
            0 -1 40 67245499 297346153 -1861116423 -720136741 1267271675
            964857984 -1064645395 -16142710</internalNodes>
          <leafValues>
            -6.9605576992034912e-01 7.0761269330978394e-01</leafValues></_></weakClassifiers></_>
    <!-- stage 2 -->
    <_>
      <maxWeakCount>7</maxWeakCount>
      <stageThreshold>-8.3724176883697510e-01</stageThreshold>
      <weakClassifiers>
        <_>
          <internalNodes>
            0 -1 5 -967842097 172544391 -1610505792 -1975680821
            1992915155 1074299010 -430864293 -69211713</internalNodes>
          <leafValues>
            -7.4582797288894653e-01 5.2225518226623535e-01</leafValues></_>
        <_>
          <internalNodes>
            0 -1 18 -355730689 1379992335 -804174714 1925370910
            -259538938 -767229753 -513703773 -263722289</internalNodes>
          <leafValues>
            -6.5834218263626099e-01 5.3643351793289185e-01</leafValues></_>
        <_>
          <internalNodes>
            0 -1 71 -241 -335807106 -65670 675019646 1056962312
            -318768257 -12583156 -83886085</internalNodes>
          <leafValues>
            -5.2583205699920654e-01 7.3587971925735474e-01</leafValues></_>
        <_>
          <internalNodes>
            0 -1 29 -16881409 -622849 -66305 -68124688 1979597949
            -42508835 -233750 -581608328</internalNodes>
          <leafValues>
            -5.7903766632080078e-01 6.9433307647705078e-01</leafValues></_>
        <_>
          <internalNodes>
            0 -1 30 962401663 -180531192 -662693607 1569000722
            -1954378757 -1175450495 -713028129 -1089263261</internalNodes>
          <leafValues>
            -6.9122660160064697e-01 6.2219583988189697e-01</leafValues></_>
        <_>
          <internalNodes>
            0 -1 48 -834412057 303316992 -2147450478 -662630400
            -922379587 -1693937535 -200683356 -240262941</internalNodes>
          <leafValues>
            -7.0322513580322266e-01 5.8716034889221191e-01</leafValues></_>
        <_>
          <internalNodes>
            0 -1 19 -652480033 1460208025 -1857908655 134263042
            -796839349 -388497360 -536542941 -548026086</internalNodes>
          <leafValues>
            -6.8062311410903931e-01 5.8784937858581543e-01</leafValues></_></weakClassifiers></_>
    <!-- stage 3 -->
    <_>
      <maxWeakCount>6</maxWeakCount>
      <stageThreshold>-5.1501309871673584e-01</stageThreshold>
      <weakClassifiers>
        <_>
          <internalNodes>
            0 -1 4 -899683409 -1911454267 -511683253 -11466095 153110719
            1772621025 61342427 -342897957</internalNodes>
          <leafValues>
            -7.6223778724670410e-01 4.2818427085876465e-01</leafValues></_>
        <_>
          <internalNodes>
            0 -1 65 -987240942 -251493229 -1845223408 -788037625
            1078026304 -939491039 84496672 -36700469</internalNodes>
          <leafValues>
            -7.5954174995422363e-01 4.6540489792823792e-01</leafValues></_>
        <_>
          <internalNodes>
            0 -1 20 -307238673 -891674488 1612743042 -389774649
            -657732962 -636678005 -74807110 -70323541</internalNodes>
          <leafValues>
            -6.0780411958694458e-01 6.4097166061401367e-01</leafValues></_>
        <_>
          <internalNodes>
            0 -1 10 -254291333 1379846291 -973027004 1611035920
            -268434559 1214470 -821964765 -504896518</internalNodes>
          <leafValues>
            -6.5244936943054199e-01 5.4487770795822144e-01</leafValues></_>
        <_>
          <internalNodes>
            0 -1 24 -799057313 1698758995 356794647 962748416 286409218
            1778458648 -1542313761 -83699121</internalNodes>
          <leafValues>
            -6.0712152719497681e-01 6.0545736551284790e-01</leafValues></_>
        <_>
          <internalNodes>
            0 -1 35 969226231 1037572313 -2013064865 -543092601
            1002445757 -1182400344 144808911 1063915532</internalNodes>
          <leafValues>
            -7.2618657350540161e-01 5.1591974496841431e-01</leafValues></_></weakClassifiers></_>
    <!-- stage 4 -->
    <_>
      <maxWeakCount>6</maxWeakCount>
      <stageThreshold>-6.1633265018463135e-01</stageThreshold>
      <weakClassifiers>
        <_>
          <internalNodes>
            0 -1 60 -570959057 1594520903 -2146278400 891674867
            -1954332097 2039088201 -360462321 -87033057</internalNodes>
          <leafValues>
            -7.2257250547409058e-01 5.2121210098266602e-01</leafValues></_>
        <_>
          <internalNodes>
            0 -1 6 -900797345 -805284304 -1593520108 335593863
            -1337737077 -88883168 -385705339 -11538441</internalNodes>
          <leafValues>
            -7.1095037460327148e-01 4.9638879299163818e-01</leafValues></_>
        <_>
          <internalNodes>
            0 -1 7 -319829905 1827376271 -798127966 -286044147 294191623
            773849728 1644925222 -135268433</internalNodes>
          <leafValues>
            -7.4159538745880127e-01 5.1681941747665405e-01</leafValues></_>
        <_>
          <internalNodes>
            0 -1 51 -44564738 -1044991550 -1072725945 -703163608
            -1381390569 -213751542 -774979184 -19072380</internalNodes>
          <leafValues>
            -7.5753992795944214e-01 4.9191576242446899e-01</leafValues></_>
        <_>
          <internalNodes>
            0 -1 66 -1930958301 571117590 1208065041 222265694
            -1976006642 -385113336 1367695617 -912262213</internalNodes>
          <leafValues>
            -7.1060955524444580e-01 5.6015861034393311e-01</leafValues></_>
        <_>
          <internalNodes>
            0 -1 68 -757973507 -782796717 -1785626404 -335479680
            -1599436701 -1648295783 -1330864120 -824378929</internalNodes>
          <leafValues>
            -6.6907620429992676e-01 5.7581132650375366e-01</leafValues></_></weakClassifiers></_>
    <!-- stage 5 -->
    <_>
      <maxWeakCount>8</maxWeakCount>
      <stageThreshold>-4.9713760614395142e-01</stageThreshold>
      <weakClassifiers>
        <_>
          <internalNodes>
            0 -1 73 -3 -1075838977 -524289 -139297 -8388613 -268503834
            -138938377 -40</internalNodes>
          <leafValues>
            -5.2601158618927002e-01 7.6385539770126343e-01</leafValues></_>
        <_>
          <internalNodes>
            0 -1 44 -707404289 -686570176 1393571223 -1827174322
            786486201 -1618636505 1083185304 169912488</internalNodes>
          <leafValues>
            -7.3894888162612915e-01 4.7484278678894043e-01</leafValues></_>
        <_>
          <internalNodes>
            0 -1 58 -3462361 2032092181 -738176641 335624665 -209481701
            -1476384446 -1056261905 -522249909</internalNodes>
          <leafValues>
            -7.1952086687088013e-01 4.6660926938056946e-01</leafValues></_>
        <_>
          <internalNodes>
            0 -1 11 -1722090530 -712814249 323223898 816189578
            2056966214 448988163 -911504870 -11014309</internalNodes>
          <leafValues>
            -6.9653105735778809e-01 4.5512813329696655e-01</leafValues></_>
        <_>
          <internalNodes>
            0 -1 47 162741695 -1693112679 -247462573 1058541594
            -1033820968 -1182267374 -897464087 -1679509220</internalNodes>
          <leafValues>
            -6.5883272886276245e-01 5.0856477022171021e-01</leafValues></_>
        <_>
          <internalNodes>
            0 -1 23 -753841229 -587134460 -1987982883 1602228503
            -1556600248 -107659256 -398935910 -549606849</internalNodes>
          <leafValues>
            -5.5958849191665649e-01 6.6339522600173950e-01</leafValues></_>
        <_>
          <internalNodes>
            0 -1 55 327537063 159683515 150995519 -821591054 29393309
            19597514 1637452017 1296028719</internalNodes>
          <leafValues>
            -5.9171962738037109e-01 6.1447417736053467e-01</leafValues></_>
        <_>
          <internalNodes>
            0 -1 45 24517151 -1787870603 -783269409 1426391312 822158270
            -97940917 -1509815812 195562376</internalNodes>
          <leafValues>
            -7.2496289014816284e-01 4.9551212787628174e-01</leafValues></_></weakClassifiers></_>
    <!-- stage 6 -->
    <_>
      <maxWeakCount>8</maxWeakCount>
      <stageThreshold>-6.7442554235458374e-01</stageThreshold>
      <weakClassifiers>
        <_>
          <internalNodes>
            0 -1 13 -4097 -538320898 -16385 -17825793 -1073741858
            -262258 -16843265 -4262945</internalNodes>
          <leafValues>
            -5.0775194168090820e-01 7.0071256160736084e-01</leafValues></_>
        <_>
          <internalNodes>
            0 -1 56 -1585205201 -1593655290 319655964 -964177865
            1667470218 201884930 319488325 -846204723</internalNodes>
          <leafValues>
            -7.4392157793045044e-01 4.4407585263252258e-01</leafValues></_>
        <_>
          <internalNodes>
            0 -1 37 273798773 -240795193 -2147417385 -1333673920
            1212807583 -1073573886 -1425897269 -24117781</internalNodes>
          <leafValues>
            -6.6234827041625977e-01 4.8372423648834229e-01</leafValues></_>
        <_>
          <internalNodes>
            0 -1 70 -135534721 223477775 1145487622 10477595 -265688314
            813826080 -1216173558 -502993656</internalNodes>
          <leafValues>
            -6.0571175813674927e-01 5.3410440683364868e-01</leafValues></_>
        <_>
          <internalNodes>
            0 -1 22 -715791538 -653979635 -1870593976 1616026054
            -2147317685 -1962702336 -1467381352 -142876689</internalNodes>
          <leafValues>
            -6.2943029403686523e-01 5.3350847959518433e-01</leafValues></_>
        <_>
          <internalNodes>
            0 -1 59 -2121572429 -2030022118 -1861943279 -665860720
            419506995 -1451064682 1230972441 1340078317</internalNodes>
          <leafValues>
            -6.8804687261581421e-01 4.5449379086494446e-01</leafValues></_>
        <_>
          <internalNodes>
            0 -1 54 -1785236692 67159058 -2113777384 1141047432
            -1736335340 -1979006846 -1476152863 -806492979</internalNodes>
          <leafValues>
            -7.5422096252441406e-01 4.1997295618057251e-01</leafValues></_>
        <_>
          <internalNodes>
            0 -1 26 -1606024171 2044330896 -1828699683 -477945523
            -1969741381 -1433888702 -393696789 -1918424360</internalNodes>
          <leafValues>
            -6.6142547130584717e-01 4.8857682943344116e-01</leafValues></_></weakClassifiers></_>
    <!-- stage 7 -->
    <_>
      <maxWeakCount>9</maxWeakCount>
      <stageThreshold>-9.3418228626251221e-01</stageThreshold>
      <weakClassifiers>
        <_>
          <internalNodes>
            0 -1 0 9690555 -108986204 -869267306 -44330838 -1996240497
            -650598384 28983491 -876886027</internalNodes>
          <leafValues>
            -5.4796028137207031e-01 4.9084249138832092e-01</leafValues></_>
        <_>
          <internalNodes>
            0 -1 3 -286265361 -823136537 -285213001 -269549826 801073143
            -8388609 1841263991 -975183757</internalNodes>
          <leafValues>
            -4.9900090694427490e-01 5.7854080200195313e-01</leafValues></_>
        <_>
          <internalNodes>
            0 -1 21 -683150337 2035643843 -2097114959 957486459
            -1475669430 940072968 169316170 2068046159</internalNodes>
          <leafValues>
            -5.2588695287704468e-01 5.7774138450622559e-01</leafValues></_>
        <_>
          <internalNodes>
            0 -1 8 -144749093 1476411394 268435520 18891136 -761667131
            -58130432 -1023278710 -347939061</internalNodes>
          <leafValues>
            -6.1160671710968018e-01 4.8114046454429626e-01</leafValues></_>
        <_>
          <internalNodes>
            0 -1 69 -938411435 415305859 537200897 -525737953
            -1878802108 -2113863664 -1073622776 2061823498</internalNodes>
          <leafValues>
            -6.1917370557785034e-01 5.3097128868103027e-01</leafValues></_>
        <_>
          <internalNodes>
            0 -1 50 -904787153 1545085961 1082769655 286347273 98488
            -402612075 -2004606577 -1429235681</internalNodes>
          <leafValues>
            -6.8401503562927246e-01 4.5001375675201416e-01</leafValues></_>
        <_>
          <internalNodes>
            0 -1 53 -1857907279 -1585135210 135311793 420659461
            -1609514329 -1600602104 1082660072 -1893146447</internalNodes>
          <leafValues>
            -6.3453966379165649e-01 5.6503212451934814e-01</leafValues></_>
        <_>
          <internalNodes>
            0 -1 38 1973935231 -1009647617 -655505 -151584769 1962721277
            1951858687 -184553513 -176293891</internalNodes>
          <leafValues>
            -5.2921152114868164e-01 6.4612394571304321e-01</leafValues></_>
        <_>
          <internalNodes>
            0 -1 67 -1434212997 -2130538367 1082135184 -805270872
            684605473 413386244 1612858132 -471085863</internalNodes>
          <leafValues>
            -6.6811066865921021e-01 5.0317466259002686e-01</leafValues></_></weakClassifiers></_>
    <!-- stage 8 -->
    <_>
      <maxWeakCount>10</maxWeakCount>
      <stageThreshold>-8.9459484815597534e-01</stageThreshold>
      <weakClassifiers>
        <_>
          <internalNodes>
            0 -1 1 -1052388095 -305641592 -1475607330 -748961595
            -360593237 -627408883 -2012098014 -4202337</internalNodes>
          <leafValues>
            -5.3070175647735596e-01 4.7134935855865479e-01</leafValues></_>
        <_>
          <internalNodes>
            0 -1 34 5520213 -1702885354 1090585003 -922017789 313904931
            511778834 -1425430513 -3166069</internalNodes>
          <leafValues>
            -8.0461764335632324e-01 3.0911993980407715e-01</leafValues></_>
        <_>
          <internalNodes>
            0 -1 27 -202688129 -617278330 562233687 454035775 1115885144
            1265322504 -1289123234 455227195</internalNodes>
          <leafValues>
            -6.6852408647537231e-01 3.6147958040237427e-01</leafValues></_>
        <_>
          <internalNodes>
            0 -1 36 3342353 -176012143 -1743210215 -1220521083
            -661651115 -805167092 1073763247 -204972008</internalNodes>
          <leafValues>
            -7.6265639066696167e-01 3.4272560477256775e-01</leafValues></_>
        <_>
          <internalNodes>
            0 -1 49 -757153568 -529903616 -2122170326 -536207292
            -1877901048 1615462403 -1689597430 -503104849</internalNodes>
          <leafValues>
            -6.1192291975021362e-01 4.7439050674438477e-01</leafValues></_>
        <_>
          <internalNodes>
            0 -1 57 -2146896968 -2021646336 1237333 221249808
            -2113764727 -2109734744 864559245 -273035137</internalNodes>
          <leafValues>
            -5.2314454317092896e-01 5.5210095643997192e-01</leafValues></_>
        <_>
          <internalNodes>
            0 -1 25 -1358955777 1055883263 -268513569 -1221296386
            -302033419 -50889348 -107009 -396012419</internalNodes>
          <leafValues>
            -4.9989077448844910e-01 6.1063826084136963e-01</leafValues></_>
        <_>
          <internalNodes>
            0 -1 17 1269014662 1392607235 674263360 -1973682142
            402786560 -2030042590 -754745342 -175437005</internalNodes>
          <leafValues>
            -7.5722110271453857e-01 4.1045251488685608e-01</leafValues></_>
        <_>
          <internalNodes>
            0 -1 15 -2146385919 -720551680 -1005774834 -86849466
            -2147450703 -1426030464 -2000567533 -1947234623</internalNodes>
          <leafValues>
            -5.8233290910720825e-01 4.8954263329505920e-01</leafValues></_>
        <_>
          <internalNodes>
            0 -1 72 -1329533024 285249672 299507 -1325285120 1880630955
            -2145844909 172676369 -276302629</internalNodes>
          <leafValues>
            -5.7232558727264404e-01 5.2204847335815430e-01</leafValues></_></weakClassifiers></_>
    <!-- stage 9 -->
    <_>
      <maxWeakCount>10</maxWeakCount>
      <stageThreshold>-3.6802798509597778e-01</stageThreshold>
      <weakClassifiers>
        <_>
          <internalNodes>
            0 -1 73 -9 -2097153 -1091043337 -538058753 -16777229
            -1073809428 -172492809 -262947</internalNodes>
          <leafValues>
            -4.9490836262702942e-01 5.4564756155014038e-01</leafValues></_>
        <_>
          <internalNodes>
            0 -1 39 837383159 1497845909 -2130672623 1489096847
            -1157322289 -108887920 -1509359398 -89382749</internalNodes>
          <leafValues>
            -6.9455558061599731e-01 3.8826215267181396e-01</leafValues></_>
        <_>
          <internalNodes>
            0 -1 9 -624692529 1456280347 1099301136 1615352220
            -1807494261 -787791230 -931036470 -26486561</internalNodes>
          <leafValues>
            -5.8780544996261597e-01 4.3981492519378662e-01</leafValues></_>
        <_>
          <internalNodes>
            0 -1 28 -700141217 -100542843 394381147 810715224 -367224719
            457844743 -1409185698 1461833315</internalNodes>
          <leafValues>
            -6.7728388309478760e-01 3.8792428374290466e-01</leafValues></_>
        <_>
          <internalNodes>
            0 -1 52 -1114183 -5308418 -73 -269680642 2138374059
            -1348141058 1299510717 -852629521</internalNodes>
          <leafValues>
            -4.2311182618141174e-01 6.2771785259246826e-01</leafValues></_>
        <_>
          <internalNodes>
            0 -1 41 -1304190793 -1605861235 273350743 -1073362814
            -1448418829 805356713 -1700558169 747670304</internalNodes>
          <leafValues>
            -6.3351291418075562e-01 4.3228963017463684e-01</leafValues></_>
        <_>
          <internalNodes>
            0 -1 62 1391674485 2080374655 2130702186 -230752389 -8388625
            -167772289 -104 -365265035</internalNodes>
          <leafValues>
            -5.1419121026992798e-01 5.5264073610305786e-01</leafValues></_>
        <_>
          <internalNodes>
            0 -1 12 2030005468 -1074974996 -285217026 1676144638 -74028
            -8618115 -16910467 -14942721</internalNodes>
          <leafValues>
            -5.1117831468582153e-01 6.1343413591384888e-01</leafValues></_>
        <_>
          <internalNodes>
            0 -1 63 1363532187 100731014 -2147134512 -754757616
            1674822139 1224769544 1082360085 1298121094</internalNodes>
          <leafValues>
            -5.6938105821609497e-01 5.4548394680023193e-01</leafValues></_>
        <_>
          <internalNodes>
            0 -1 42 1361283686 1749139456 -1593572974 -1803335967
            4325384 -2097151744 18646272 -255645074</internalNodes>
          <leafValues>
            -5.6630116701126099e-01 5.3768408298492432e-01</leafValues></_></weakClassifiers></_></stages>
  <features>
    <_>
      <rect>
        0 0 3 1</rect></_>
    <_>
      <rect>
        0 1 1 1</rect></_>
    <_>
      <rect>
        0 1 8 3</rect></_>
    <_>
      <rect>
        0 2 1 2</rect></_>
    <_>
      <rect>
        0 3 4 2</rect></_>
    <_>
      <rect>
        0 6 2 3</rect></_>
    <_>
      <rect>
        0 9 4 8</rect></_>
    <_>
      <rect>
        0 10 1 1</rect></_>
    <_>
      <rect>
        0 12 1 6</rect></_>
    <_>
      <rect>
        0 12 3 6</rect></_>
    <_>
      <rect>
        0 15 2 3</rect></_>
    <_>
      <rect>
        0 18 7 7</rect></_>
    <_>
      <rect>
        0 31 3 3</rect></_>
    <_>
      <rect>
        0 37 1 1</rect></_>
    <_>
      <rect>
        1 0 13 12</rect></_>
    <_>
      <rect>
        1 1 1 1</rect></_>
    <_>
      <rect>
        1 1 5 12</rect></_>
    <_>
      <rect>
        1 11 7 6</rect></_>
    <_>
      <rect>
        1 17 3 4</rect></_>
    <_>
      <rect>
        1 26 5 4</rect></_>
    <_>
      <rect>
        1 37 1 1</rect></_>
    <_>
      <rect>
        2 28 3 3</rect></_>
    <_>
      <rect>
        3 23 3 2</rect></_>
    <_>
      <rect>
        3 34 4 2</rect></_>
    <_>
      <rect>
        4 31 2 2</rect></_>
    <_>
      <rect>
        6 37 6 1</rect></_>
    <_>
      <rect>
        8 0 3 1</rect></_>
    <_>
      <rect>
        8 33 2 2</rect></_>
    <_>
      <rect>
        8 35 3 1</rect></_>
    <_>
      <rect>
        8 37 5 1</rect></_>
    <_>
      <rect>
        9 0 4 2</rect></_>
    <_>
      <rect>
        9 30 8 3</rect></_>
    <_>
      <rect>
        10 32 5 2</rect></_>
    <_>
      <rect>
        11 0 7 4</rect></_>
    <_>
      <rect>
        11 1 6 12</rect></_>
    <_>
      <rect>
        11 1 7 2</rect></_>
    <_>
      <rect>
        12 2 2 1</rect></_>
    <_>
      <rect>
        12 2 6 7</rect></_>
    <_>
      <rect>
        12 7 5 6</rect></_>
    <_>
      <rect>
        13 1 5 4</rect></_>
    <_>
      <rect>
        13 6 6 2</rect></_>
    <_>
      <rect>
        13 16 5 5</rect></_>
    <_>
      <rect>
        13 18 1 2</rect></_>
    <_>
      <rect>
        15 2 2 1</rect></_>
    <_>
      <rect>
        16 34 4 2</rect></_>
    <_>
      <rect>
        17 37 2 1</rect></_>
    <_>
      <rect>
        21 2 4 2</rect></_>
    <_>
      <rect>
        23 1 2 1</rect></_>
    <_>
      <rect>
        23 22 5 4</rect></_>
    <_>
      <rect>
        23 23 1 1</rect></_>
    <_>
      <rect>
        24 0 5 3</rect></_>
    <_>
      <rect>
        24 29 2 2</rect></_>
    <_>
      <rect>
        24 31 4 3</rect></_>
    <_>
      <rect>
        24 37 2 1</rect></_>
    <_>
      <rect>
        25 12 4 6</rect></_>
    <_>
      <rect>
        27 32 3 2</rect></_>
    <_>
      <rect>
        28 26 4 4</rect></_>
    <_>
      <rect>
        28 37 2 1</rect></_>
    <_>
      <rect>
        30 2 3 3</rect></_>
    <_>
      <rect>
        30 32 2 2</rect></_>
    <_>
      <rect>
        31 3 3 3</rect></_>
    <_>
      <rect>
        31 11 3 4</rect></_>
    <_>
      <rect>
        33 0 2 1</rect></_>
    <_>
      <rect>
        33 22 2 3</rect></_>
    <_>
      <rect>
        34 8 2 2</rect></_>
    <_>
      <rect>
        34 10 2 6</rect></_>
    <_>
      <rect>
        34 28 2 2</rect></_>
    <_>
      <rect>
        36 12 1 3</rect></_>
    <_>
      <rect>
        37 0 1 1</rect></_>
    <_>
      <rect>
        37 0 1 2</rect></_>
    <_>
      <rect>
        37 2 1 2</rect></_>
    <_>
      <rect>
        37 3 1 2</rect></_>
    <_>
      <rect>
        37 31 1 3</rect></_>
    <_>
      <rect>
        37 37 1 1</rect></_></features></cascade>
</opencv_storage>
